GIS
5
0.0
2
F
T
3
469 0
311 0 1
3 1
783
heads=couple:they
heads=our:they
heads=shore:they
heads=professional:they
heads=hack:they
heads=couple:he
heads=people:he
heads=graduate:he
heads=somebody:he
heads=cabinet:he
heads=Chairman:he
heads=Cubans:they
heads=their:he
heads=One:he
heads=director:he
heads=Americans:he
heads=father_-_in_-_law:he
dist=39
heads=army:they
heads=region:they
dist=30
heads=Democrats:he
heads=republican:they
heads=Democrats:they
heads=constituent:they
heads=senator:they
heads=you:it
dist=36
heads=republicans:they
heads=party:they
heads=mother:they
heads=democrats:they
heads=audience:he
heads=guys:he
heads=victim:they
heads=220:they
heads=chain:they
heads=family:he
heads=organization:he
heads=americans:he
heads=representative:he
heads=senator:he
heads=judge:they
heads=family:she
heads=physician:he
heads=jury:they
heads=juror:they
heads=his:they
heads=room:they
heads=center:they
heads=physician:they
heads=insurers:it
heads=neurosurgeons:it
heads=receptionist:it
heads=HMOs:it
heads=your:it
heads=hospital:it
heads=her:it
heads=board:it
heads=administration:it
heads=public:they
heads=hospital:they
heads=infant:they
heads=board:they
heads=us:it
heads=percent:he
heads=they:he
heads=public:he
heads=congressmen:he
heads=democrats:he
heads=mummy:he
heads=he:they
heads=mummy:they
heads=world:it
heads=vote:he
heads=community:he
heads=Secretary-of-State:he
heads=missile:he
heads=medium:they
heads=wig:they
heads=competitor:they
heads=guest:they
heads=host:they
heads=she:he
heads=staff:he
heads=Governor:he
heads=Representative:he
heads=staff:she
heads=serviceman:they
heads=corporation:they
heads=dealer:he
heads=figure:they
heads=our:it
heads=critic:they
heads=customer:they
reflexdist=40
heads=squad:he
heads=unit:he
heads=we:he
heads=plane:they
heads=one:they
heads=parachute:they
heads=base:they
heads=PJs:they
heads=bomb:they
heads=plane:it
heads=border:it
heads=airplane:it
heads=anybody:it
heads=mortar:they
heads=land:it
heads=I:it
heads=AAA:it
heads=ammunition:it
heads=desert:it
heads=multitude:they
heads=nation:it
heads=Iraq:it
heads=mil:it
heads=lot:it
heads=town:they
heads=explosive:they
heads=place:they
heads=checkpoint:they
heads=ship:they
heads=warhead:they
heads=area:they
heads=sympathizer:they
heads=captor:they
heads=patrol:they
heads=opponent:they
heads=city:they
heads=line:they
heads=Iraqis:he
heads=agency:they
heads=mob:they
heads=worker:they
heads=healthy:they
heads=weak:they
heads=ill:they
heads=driver:they
heads=strong:they
heads=crowd:they
heads=speaker:they
heads=my:they
heads=hill:they
heads=bunker:they
heads=Kurds:he
heads=Kurds:they
heads=conscript:they
heads=himself:he
heads=ones:he
heads=people:she
heads=horizon:it
heads=tip:they
heads=edge:it
heads=heart:it
heads=town:it
heads=two:it
heads=iraqis:he
heads=be:it
heads=americans:she
heads=6:they
heads=CORRESPONDENT:he
heads=prisoner:he
heads=chemical:they
heads=headquarters:they
heads=unit:she
heads=VIRGINIA:she
heads=dagger:they
heads=person:it
heads=coalition:it
heads=viewer:they
heads=vanguard:they
heads=point:they
heads=approach:they
heads=sector:they
heads=team:it
heads=thing:they
heads=building:they
heads=terrain:they
heads=facility:they
heads=reinforcement:they
heads=personnel:he
heads=rifle:they
heads=A-10s:they
heads=them:he
heads=capital:they
heads=citizen:they
heads=column:they
heads=eyewitness:they
heads=suburb:they
heads=outskirts:it
heads=opposition:it
heads=limit:they
heads=outfit:they
heads=doctor:she
heads=he:she
heads=you:they
heads=that:they
heads=ground:it
heads=street:they
heads=cleric:they
heads=artillery:it
heads=this:they
heads=sniper:they
heads=roof:they
heads=encampment:they
heads=canyon:they
heads=block:they
heads=complex:it
heads=center:it
heads=Kurdish:it
heads=warplanes:it
heads=defense:they
heads=him:they
heads=gpe:he
heads=village:they
heads=house:they
heads=location:they
heads=side:it
heads=southwest:it
heads=riverfront:it
heads=southeast:it
heads=checkpoint:it
heads=perimeter:it
heads=casualty:it
heads=position:it
heads=henchman:they
heads=rocket:they
heads=home:they
heads=partner:he
heads=bullet:they
heads=recess:they
heads=round:they
heads=platoon:they
heads=50:they
heads=maker:they
heads=supplier:they
heads=convoy:they
heads=platoon:he
heads=route:they
heads=guard:they
reflexdist=18
heads=cell:they
heads=relative:they
heads=police:he
heads=brother:they
heads=force:it
heads=colleague:they
heads=photographer:he
heads=mine:he
heads=sniper:he
heads=fighter:he
heads=actor:he
heads=producer:he
heads=dictator:he
heads=leadership:he
heads=dissident:they
heads=exile:they
heads=your:he
heads=boat:they
heads=army:it
heads=clan:they
heads=11:they
heads=military:they
heads=lab:they
heads=structure:they
heads=clan:she
heads=Americans:she
heads=general:she
heads=clan:he
heads=national:they
heads=secretary:they
heads=committee:they
heads=scientist:they
heads=waterway:they
heads=launcher:they
heads=vessel:they
heads=smuggler:they
heads=thesis:they
reflexdist=10
reflexdist=24
reflexdist=4
heads=her:he
heads=his:she
heads=bride:they
heads=baby:he
heads=factory:it
heads=son_-_in_-_law:he
heads=country:it
heads=us:she
heads=police:she
heads=israelis:they
heads=advisor:they
heads=capitol:they
heads=israelis:he
heads=bridge:they
heads=rest:they
heads=12,000:they
heads=well:they
heads=field:they
heads=baghdad:it
heads=me:it
reflexdist=7
reflexdist=6
reflexdist=5
heads=itself:they
heads=ireland:it
heads=palace:they
heads=tarmac:it
heads=talians:it
heads=neither:she
heads=iraq:it
heads=their:she
heads=they:she
heads=territory:it
reflexdist=16
heads=ss:they
heads=coroner:she
heads=union:it
heads=narateor:she
heads=mosque:it
reflexdist=27
heads=child:he
reflexdist=28
reflexdist=31
heads=us:he
heads=stranger:they
heads=president:she
heads=officer:she
heads=school:they
heads=taxpayer:they
heads=senators:she
heads=student:she
heads=senators:they
heads=democrat:they
heads=principal:they
heads=capital:it
heads=aides:he
heads=crowd:he
heads=crowd:she
heads=p.o.w:she
heads=p.o.w.s:she
reflexdist=17
reflexdist=9
heads=water:it
heads=mine:it
heads=dock:it
heads=college:it
heads=carrier:it
heads=group:it
heads=gentleman:they
heads=lady:they
heads=dock:they
heads=ones:she
heads=cameraman:they
heads=gunman:they
heads=producer:they
heads=olds:he
heads=rebel:they
heads=kurds:they
heads=kurds:he
reflexdist=2
heads=agent:they
heads=individual:he
heads=secretary-of-state:he
heads=intern:he
heads=priest:he
heads=biographer:she
heads=magazine:they
heads=reader:they
heads=our:he
heads=pick:he
reflexdist=30
heads=him:she
reflexdist=3
heads=individual:they
heads=swimmer:they
heads=afghans:they
heads=elder:they
heads=warlord:they
heads=choir:they
heads=jet:it
heads=chief:he
heads=shareholder:they
heads=management:it
heads=psychiatrist:he
heads=your:she
heads=planet:it
heads=nigerians:she
heads=most:he
heads=most:they
heads=technician:he
heads=them:she
heads=umpire:they
heads=jury:he
heads=manufacturer:they
heads=entrepreneur:she
heads=broker:she
heads=crew:he
heads=palestinians:he
heads=professor:he
heads=brotherhood:it
heads=sharities:it
heads=strip:it
heads=settler:they
heads=store:they
heads=water:they
heads=baby:they
heads=heart:they
heads=mom:she
heads=dad:she
heads=we:she
heads=giant:they
heads=coreys:they
heads=dancer:they
heads=audience:they
heads=britains:he
reflexdist=21
reflexdist=26
heads=hunter:he
heads=toddler:she
heads=lawyer:she
heads=guardian:he
heads=judge:she
heads=spokesman:she
heads=dead:he
heads=youngster:he
reflexdist=37
heads=Palestinians:he
heads=bus:it
heads=another:it
heads=Palestinians:they
heads=prison:it
heads=body:it
heads=anthrax:it
heads=council:it
heads=diplomat:they
heads=division:it
heads=unit:it
heads=Muslims:he
heads=region:it
heads=human:they
heads=Muslims:they
heads=border:they
heads=movement:they
heads=Arabs:they
heads=demonstrator:they
heads=group:she
heads=device:they
heads=Organisers:they
heads=extremist:they
heads=toy:they
heads=supporter:they
heads=plaza:they
heads=studio:they
heads=Organisers:she
heads=group:he
heads=marcher:she
heads=protester:she
reflexdist=39
reflexdist=35
reflexdist=22
reflexdist=19
reflexdist=14
heads=spokeswoman:he
heads=general:they
heads=mob:he
subject
lastCat=np
prior=1
prior=3
dist=40
lastCat=name
heads=organization:they
lastCat=det
prior=2
heads=expert:they
heads=people:they
heads=gpe:they
heads=cabinet:they
dist=0
prior=5
heads=person:they
dist=3
prior=4
dist=2
heads=person:he
dist=5
prior=6
dist=1
heads=politician:he
lastCat=title
prior=10
heads=President:he
dist=19
heads=man:he
prior=7
dist=13
heads=candidate:he
heads=I:he
dist=26
dist=16
prior=8
heads=he:he
heads=they:they
heads=politician:they
dist=31
dist=12
dist=27
dist=21
dist=14
dist=20
heads=president:he
dist=10
heads=gpe:it
dist=33
heads=organization:it
dist=4
dist=6
dist=8
dist=37
dist=23
dist=24
dist=7
dist=29
dist=28
heads=man:they
dist=35
heads=Americans:they
heads=troop:they
heads=soldier:they
heads=force:they
heads=it:they
heads=family:they
heads=kid:they
dist=32
heads=them:they
dist=15
dist=9
heads=nation:they
dist=18
prior=9
dist=34
dist=38
dist=22
heads=you:he
heads=their:they
dist=11
dist=25
heads=we:it
dist=sameSent
heads=everybody:they
heads=we:they
heads=father:they
heads=state:they
heads=ally:they
dist=17
heads=his:he
heads=him:he
heads=doctor:they
heads=lawyer:they
heads=americans:they
heads=country:they
heads=obstetrician:they
heads=person:she
heads=I:she
heads=you:she
heads=woman:she
heads=member:they
heads=these:they
heads=other:they
heads=guys:they
heads=executive:they
heads=witness:they
heads=woman:they
heads=community:they
heads=everyone:they
heads=location:it
heads=state:it
heads=they:it
heads=court:it
heads=one:it
heads=my:he
heads=it:it
heads=surgeon:they
heads=percent:they
heads=company:they
heads=doctor:he
heads=commander:he
heads=customer:he
heads=me:he
heads=guy:he
heads=daddy:he
heads=secretary:he
heads=missile:they
heads=weapon:they
heads=those:they
heads=her:she
heads=Senator:he
heads=governor:he
heads=ambassador:he
heads=voter:they
heads=she:she
heads=Senator:she
heads=member:he
heads=facility:it
heads=fan:they
heads=friend:they
heads=one:he
heads=soldier:he
heads=veteran:they
heads=helicopter:they
heads=aircraft:it
heads=crew:they
heads=area:it
heads=helicopter:it
heads=some:they
heads=grenade:they
heads=Engineers:they
heads=armament:they
heads=base:it
heads=unit:they
heads=Iraqis:they
heads=Marines:they
heads=prisoner:they
heads=civilian:they
heads=government:they
heads=gun:they
heads=truck:they
heads=protester:they
heads=folk:they
heads=officer:they
reflexdist=sameSimplex
heads=American:they
heads=fighter:they
heads=mine:they
heads=jet:they
heads=road:it
heads=this:it
heads=vehicle:they
heads=Israelis:they
heads=bomber:he
heads=division:they
heads=source:they
heads=reporter:they
heads=commander:they
heads=iraqis:they
heads=veh:it
heads=it:he
heads=many:they
heads=prisoner:she
heads=its:they
heads=official:they
heads=its:it
heads=regime:it
heads=mother:she
heads=my:she
heads=us:they
lastCat=n
heads=military:it
heads=aircraft:they
heads=pilot:they
heads=personnel:they
heads=leader:they
heads=bridge:it
heads=father:he
heads=site:they
heads=local:they
heads=cleric:he
heads=tank:they
heads=city:it
heads=Colonel:he
heads=reporter:he
heads=airport:it
heads=journalist:they
heads=coalition:they
heads=piece:they
heads=casualty:they
heads=child:they
heads=militia:they
heads=population:they
heads=cache:they
heads=shell:they
heads=enemy:he
heads=police:they
heads=brother:he
heads=network:they
heads=terrorist:they
heads=journalist:he
heads=son:he
heads=General:he
heads=leadership:they
heads=government:it
heads=Vice-President:he
heads=sailor:they
heads=part:they
heads=firefighters:they
heads=student:they
heads=patient:they
heads=journalist:she
heads=general:he
heads=sister:she
heads=ones:they
heads=Senators:they
heads=leader:he
heads=marine:they
heads=friend:he
heads=employee:they
heads=girl:they
heads=company:it
heads=baby:she
heads=parent:they
heads=group:they
heads=themselves:they
heads=spokesman:he
heads=daughter:she
heads=that:it
heads=vehicle:it
heads=asset:they
heads=itself:it
heads=home:it
heads=missile:it
heads=pilot:she
heads=me:she
heads=husband:he
heads=child:she
heads=terrorist:he
heads=building:it
reflexdist=0
heads=officer:he
heads=business:they
heads=attorney:they
heads=attendant:they
heads=wife:she
heads=neighbor:he
heads=prosecutor:they
heads=prime-minister:he
heads=minister:he
heads=diplomat:he
heads=boy:he
heads=teacher:they
heads=girl:she
heads=teacher:she
heads=ship:it
heads=reporter:she
heads=owner:he
heads=mayor:he
heads=son:they
heads=your:they
heads=authority:they
heads=investor:they
heads=celebrity:they
heads=kid:he
heads=analyst:they
heads=one:she
heads=target:it
heads=attorney:he
heads=judge:he
heads=ceo:he
heads=official:he
heads=star:he
heads=part:it
heads=palestinians:they
heads=star:they
heads=tweens:they
heads=singer:they
heads=correspondent:he
heads=king:he
heads=prince:he
heads=rover:they
heads=legend:he
heads=fellow:he
heads=governor:she
heads=guardian:she
heads=lawyer:he
heads=bomb:it
heads=dead:they
heads=inspector:they
heads=pilot:he
heads=team:they
heads=fisherman:they
0.8865143530551991
6.139999066037596
4.9019740346063125
1.5645002222075493
1.30634743057676
1.52129473110447
2.2849958602587845
1.0950403825511579
0.9932059220138156
2.355260210318746
1.1553756898123115
7.741346235626975
5.559518670626506
8.829051985617639
1.22870609991504
1.6223775144505308
12.61069205118417
8.627736966237812
0.9932059220138219
2.3796365317853962
8.035211728688868
2.675322210939082
0.9824905118850762
2.027966302234563
1.1860483005867004
3.9973193074289157
7.0942063859150934
8.258108144686771
1.2590041152633398
2.1459753775471304
1.635179191644963
9.957549547644854
1.3483215553264778
3.315724831432765
3.123568835584269
1.237780666959095
1.719098291296428
5.199055138923913
5.220319536439209
4.089216352763341
1.420844298397013
1.0040345434470983
3.378906529201692
3.0379916952453265
1.1853516410258564
3.4535541341607123
5.977063035814689
5.561609078431965
0.8865143530551867
6.251637195145658
1.7394113364871373
2.7291481437047764
0.9017090019569863
0.9017090019569863
0.9017090019569863
1.5415689723025023
3.539584437427599
1.036689243846548
1.3382088541696187
1.0107134163648523
1.5278332561698975
1.853409591413754
0.9142955300891189
1.4717282783127907
5.098191960105776
0.8940500158670697
6.2102475265591055
1.3632454779234582
0.9017090019569931
1.7829609655532879
1.0308135254535795
1.2228403647003754
1.442844519338299
2.0451968905277296
1.902477895727909
2.395814356764799
4.106575688611817
0.9932059220138114
1.1942227153891092
1.1650927539373872
1.0725843963433515
1.710278347790208
1.3059251278155246
9.818650886730996
0.9622656641364051
4.90772506589681
4.452435147778763
7.729845269652176
0.8865143530551891
0.9541112508078395
4.046830633140115
1.5654862034043693
3.9346016697049433
1.8346551739658774
0.9017090019569863
9.86781668594501
1.8448430347872116
3.3692584995896815
7.32596445812371
3.3076457615377755
2.6408051766398177
3.1930899964773474
3.251964805180466
1.0950403825511628
1.7457816031826958
5.124633109572521
1.224984634056617
1.0709660117212658
0.8965892017624009
2.5837593389498834
0.9750043056470485
6.526380113522749
0.9017090019569863
1.9655278001332146
1.574262169049586
1.9806148953567884
0.9017090019569816
1.7971884288116127
1.9856554333434246
1.0166808408350214
2.16339912618333
1.1775958393097827
1.8497178240847174
3.1259840498705778
2.2280483062946517
3.058300218483622
4.656906654747997
1.0689649078415382
1.6401279319907784
5.400447621296662
2.445428351769744
5.598110955887788
2.2269677205950114
2.29521602701839
2.48417062313954
3.664532738622988
1.8781407375054076
0.8865143530551891
1.64120437471676
0.9017090019569745
1.166812312351127
1.2014631083200888
2.1079760167018833
1.6216037154972955
14.149733942436994
1.232656006209084
1.5430899915436163
1.4459223168551376
4.899448427906083
1.4354617588993837
1.1608569377898412
1.2136554672903337
3.3663598378805206
1.9898533565124747
1.299909341654402
2.4128712621467456
1.000570037231003
3.8636299768920463
2.8892503809850765
2.087708962906479
3.41486465550823
4.615656011439671
0.9017090019569904
2.182954436369097
2.2749521833216364
4.867003545774257
1.7984648972992672
1.2947182411129803
10.023083690448818
1.3455686429801927
7.9573654329580705
3.4075772370239803
1.6291452255372554
0.9336346850893147
1.1115951083377782
6.123248063385064
4.373081503005826
9.142895351603848
5.536062364525477
1.7685455126308147
2.26592528165756
3.8668179741896775
0.9244347645513824
1.2688060007077624
0.8865143530551891
6.451586850976779
5.811399813539998
7.118197277868047
6.264049091637664
1.1710997034260409
1.4373866800669948
1.341978810004698
1.4348707630584379
1.0674075045043694
0.9017090019569816
1.4972017098995907
4.627924639441791
7.350785556946861
11.54250687914513
5.1672580114548445
4.659193406465295
2.0927321988098213
2.735704663226216
2.184517588606255
3.6672302886825685
1.0991804725443026
1.4253595766792804
1.6591643604289044
0.9990108111529936
2.5586012492642674
1.6806799881576593
1.311587698788248
1.3469734994447689
7.287914479440055
4.755480458589545
2.8942012716584187
7.388423519217554
9.01551090205336
1.5836258100919105
1.3090115958936033
0.9886812251171988
3.219584919274723
0.9017090019569733
0.9017090019569733
0.9017090019569733
0.9017090019569733
2.5827139209185903
0.9017090019569931
1.8084774011014957
5.066640796851106
4.651546182095922
2.491168167723239
1.2560278967269505
0.9017090019569931
2.1985986917195905
1.1781158401692702
0.9017090019570113
0.9297706675600144
0.9079329836618899
5.3483298456017625
0.9932059220138109
1.2997019270109174
2.7390655697463275
12.41613705145507
1.2486182116507716
6.619261264538107
3.411284801153597
2.088309512874164
3.4761014558493546
5.10794177746804
2.1593576412882767
0.913390818921902
0.9017090019569816
0.9017090019569816
1.1934791648791316
7.313209679865173
3.1309600053111803
1.4275040555926748
5.373762970450701
3.1179079268030803
7.303041410002621
1.6526393169094735
3.121625788936034
2.186764742842604
1.735895983971821
2.039323270759124
1.6010261024486905
0.9173696534932816
0.9932059220138079
0.8865143530551991
1.6825717471247086
0.9932059220137979
3.8528030721264614
6.588490547164645
1.05026835622001
1.6362015384083501
7.774375067762059
1.5909028719004308
1.663256906707563
1.6885979057858433
1.4237633795538704
11.955183150746134
11.029623972820213
10.67313014585557
8.817488313036382
6.515823711444329
1.0051544651325857
3.8596654065122653
2.7673214980353356
11.276544033376178
2.141073728672069
6.728040368597641
6.127796694903983
2.0882931160416147
3.0747243485818996
0.9932059220138307
7.4851446125557635
2.5736472538050688
3.8378628024398997
0.9306262514291519
4.692523455086363
5.877362347460451
2.357567369200509
1.6942256456591904
11.670365370425445
11.815014606138252
10.864438689111715
6.242175205287959
2.452226253358975
2.70379814127162
0.9017090019569863
0.9017090019569863
1.1087223225728546
4.411237279894197
5.710575735969005
8.977044665784344
0.9017090019569863
11.600868431700134
4.4426584402718925
4.803724755470754
6.143477370489524
2.523598073723237
1.1398598205455697
9.633064174929675
5.826545312897871
10.285398897734977
10.070326683430356
3.9520933037670454
4.913124485869729
10.353639441082077
6.9973742930899405
4.908382698002413
2.1648548937943417
0.9017090019569909
0.9017090019569909
0.9017090019569816
2.6678055631605773
0.9209207355251223
9.08135580234711
8.429171119652182
3.6873322885975837
0.9017090019569863
0.9017090019569863
9.292034544373974
11.577209548873226
10.882364158522915
1.899161304540857
3.9216923633064886
0.9017090019569863
0.9017090019569863
2.2689462120477937
1.9780853293620082
12.357436931806076
14.233230215201045
1.289941541855759
1.1856365083546372
2.2502533877228728
1.3183669784092584
1.785223782861346
1.552989729564341
0.9017090019569818
1.2155706964827422
1.5735581944142172
11.50637510541812
2.071711796336876
2.092291046060803
4.283252639838205
1.772738750382957
4.072823598953123
5.318963540359894
1.0339737143864423
0.9017090019569853
8.271550737034065
1.1469382689320957
11.389042907241937
2.3757722988784904
12.69677751976782
1.6927928989377516
13.585767392629393
1.9232220847173327
2.2185981026498816
0.9031153712093498
5.443524890141146
5.535073591446357
0.9322297559070307
4.363570932911554
4.826447164748893
6.797750899720173
12.853946507280666
10.377656665183308
2.103066222768618
4.5699218735024445
5.001163640023195
1.0933752174749445
3.353242999219095
2.440406713081023
3.9921475676534977
1.8844157564217685
1.5330377103815045
2.684568921497553
0.899142170073582
2.3997267985897417
0.9017090019569863
2.2830861638911384
4.148561701598087
3.385868157985312
0.9358636727861757
1.4853547661888544
3.0863191955542093
3.929345124831129
4.7149883768351035
0.9017090019569789
0.9017090019569789
11.944613432522761
2.2956750711640455
1.7310828918243248
1.6329103581029258
3.858829988746097
1.37587329117733
11.859176391473182
10.958178655923367
1.3943205084326384
1.7179773552063975
3.882248215295544
2.9785269585735845
5.405733159584035
1.725301615798203
1.1835079597050266
1.0366456831277953
10.958178655923367
1.5149328741401757
1.3112568665035276
0.8865143530551999
1.1651805119414318
4.679062963213037
5.951540912768254
1.5085597155556414
2.1397311616785517
2.567449125132955
4.7326120672068654
3.736942154121141
1.7923125279466892
1.1161747872884518
1.4247081448246328
2.3792757283570936
0.9017090019569816
3.905506071505803
1.1957891205898066
5.712632481235691
0.8982896442639468
0.9017090019570078
0.8865143530552242
1.7080187215955713
1.0772834086392282
2.1953529034693267
1.1220533150504035
5.744959940607815
0.8865143530551991
0.8955718780321
0.9932059220138109
1.1934791648791372
11.988158648269424
11.851805853789731
10.0824207362818
10.944641020619382
11.157189417430459
0.8865143530551964
1.604354430991293
5.1854605377511005
0.09724065236076385
1.534097179586447
0.6664086289618432
-2.433419934427415
0.8463260466822664
-7.571288981732053
0.8051418393389129
-3.1878133969819977
0.8065836849754611
-24.997596317768842
0.7284248138528122
-6.490054546834264
0.6888840539171603
-3.0129719044187016
1.0150496809668885
-3.0804987639382144
0.843511941798103
-4.574773839779341
0.11330054990074201
4.224155371069614
-0.038971956778791395
5.0344240036318855
0.7502631806935955
-9.135636881369614
0.29988293156581225
5.266912264903621
-6.36719395490542
4.230485090760904
0.8057591804649817
-2.4632531304064864
0.5755789384606285
-0.5425444176147272
-0.946089850542732
2.334184036423415
0.7727765595178164
-2.5139448758578613
-2.119266342901142
3.334597450639042
0.1515199008155017
1.9891009560033934
0.43070169899850264
-0.6815005587838385
0.7914700611386403
-2.1061000786559347
-4.650434025110262
4.226401826701641
-1.5904693086594162
6.047182111113592
-0.20490318636646698
1.7206276865644714
0.4625857501343802
-0.37611140679016763
-0.6550786507603381
2.6721976097666222
0.8591113264787698
-20.641950153433072
-6.6732738465241965
7.169198757650865
0.4047157522048641
-0.35793877794322704
0.9682419275659067
-10.122356098221267
-0.1836856146096948
2.9980637030292447
1.1964980130876857
-14.970442927267863
0.9036880913688439
-17.971406112287706
0.9485358043952834
-14.018430111774144
0.949222957040126
-2.6930689697926695
-4.36085411566941
4.6738154820106415
-0.5616886311946132
3.7376065532002025
-1.1394715070669703
8.443810760179307
0.9901747876096492
-10.000669595709676
1.0189041150714147
-7.335052245854161
0.8560381152892944
-20.237126859163
0.944506245120337
-13.494082010398602
0.963757518172816
-10.008030859182583
0.8570391206979453
-20.466793022661133
-2.888753493440813
4.081804396672829
1.007645419139715
-6.715075978161581
0.6082191166844781
-1.3512674348608105
0.9447097011640704
-14.450467667332902
0.14422232539379376
3.3131983594263654
0.1222783622311816
0.3381732533516457
0.7188089398061379
-2.1583128230897453
0.8931828539343964
-4.4158939815671205
0.9399448431556978
-11.238692687313158
0.9335042066027626
-13.039812927414609
0.9583845968300455
-12.856589616118585
0.8595487749257975
-4.030847404603749
0.905709343467394
-15.755036340631197
0.8988724918721873
-15.906446071843531
0.31730592686620884
0.25943497101252344
0.9053786982484544
-15.062230819342757
0.4985901875392442
0.8463375673850062
0.32061618476467846
3.6923636318637647
-0.0297217225234796
6.216936027433134
0.24147493629231676
4.561451523526744
0.8334088253305154
-6.264309074839733
0.0679636502446268
3.6966462010394614
0.6126691502373367
0.4335503637374059
0.8697517703359088
-18.829190533069102
-0.9220612446907186
5.91264456130914
0.9763347525639423
-10.236517651183771
0.9536182749869972
-6.642271363683589
0.7055249400210317
-2.402505336365114
0.9580146607750271
-12.9778539534597
0.22197367681176772
0.014632772088292167
0.8761009937428117
-19.855391485112257
0.8791892244612765
-19.512328880262825
0.844512438510443
-20.429487798344077
0.8731227931611114
-17.163453164114458
-0.5688245930113016
6.639644427757259
0.9241926443795272
-5.639220356390401
0.8628865817603284
-20.937625154828115
0.8077134778628201
-16.871877283442224
-3.298653458722129
5.322750786364354
0.5997404580027932
0.42331102852952196
1.1822429480346814
-11.688152184443839
-0.4638536655500225
8.13101528733749
0.5462676918912823
4.6101586910836945
0.5336039289598524
0.08416948694382718
0.9787687651250465
-10.76503123819263
-3.798333859176804
5.2278365255295
-2.076764135989377
4.0397437871747846
0.0872828231093905
3.3130258639096057
-0.5109245853134601
7.797549878452744
0.4271245595856934
3.5225398309468936
0.5611986001797118
-0.3915540365842356
-0.002531381723502868
10.03310056988863
-0.006960350206670185
3.393832758936086
1.2034374764591744
-10.422738359315941
1.2391208248304881
-18.15941761955948
-4.946884532745122
7.788879714180205
0.29752726301358745
2.3926443643511117
0.7048535136007237
-4.18992757205146
0.41016076761017217
1.2560203477136986
-0.1886794833968195
9.431930961421125
0.03673358655376058
8.849433217099511
0.053620192871275396
4.501228202014063
0.6557610180034477
-2.175362592961964
0.5679999296199449
-0.6440728801756418
0.6033783307964402
-1.0394827353542035
0.7052344363335905
-3.3116126492945983
0.6755077622775456
-2.55697779847069
1.025420826342923
-12.542026816765214
-1.322441547883389
7.386317057765149
0.4467887822711587
0.9414157007503027
0.9501671962446956
-4.5206988550152065
-3.4687392194499194
3.147991622902191
0.12573566625623833
7.833143188987136
0.20672701719007103
3.958770668891583
-1.198917543049705
6.120463663836501
-0.1180904150624924
7.620444512066942
-0.3281507057173001
3.371973170723653
-0.20802873513020925
2.6152987380482533
0.9061239631321119
-5.22488641557658
-5.620746599386085
4.113079630878375
-0.22225107292437207
10.818865547896397
-0.6450027140970538
5.745108218544628
0.5934339583136223
2.764313520662437
0.6150798812828384
-0.1163523545868892
0.3142977521327226
6.77587872086161
-14.732938390370794
3.6963503399633257
0.10778199892416707
0.5768870109957529
-3.936785444971681
7.043102144449664
0.37451280151833233
1.8372752642405878
0.531340213576573
-1.1134705400603426
-9.272590806294195
3.8083990014046725
-1.2540541438369819
6.98772747718602
-1.6580314211792566
6.37585226144163
0.25333152814238424
2.7804968549028386
0.6437198409692018
-1.4583830612561117
0.5143670315403415
2.518759565709135
-0.7373715657188904
3.5434378453124267
0.2698114627087338
8.397813560281513
-2.146253205531025
8.195240597364585
0.6780411257330119
-2.660308916109813
0.5818764293843608
-1.00459032667925
-2.0745277492429866
8.890983522680829
0.5505202619346736
-0.1587749977587184
-4.352617611209286
11.422731563311018
0.28397488217914413
1.8383821687865773
0.3494938627091768
4.920895287316168
-0.6463329347564766
5.201711616139228
-0.7566452354193107
4.511287148179512
-1.4912468656736317
5.859792947638289
0.2777312798037679
4.685589969751103
0.2564869683622808
4.797190979442124
-2.364933226456004
6.303248731587457
0.4312153062646309
4.6587359680798075
0.6919933939882612
-3.5867263772481572
0.9995798831137295
-7.469361155544293
0.5105859124646783
2.0814279682414405
0.5133170583925049
1.1983535409521606
-0.17472142964579973
8.991596230781093
0.13190562902602432
3.4620788410512153
0.6246929817396629
-1.415675955919232
-7.010995722405746
3.2838138754865827
-0.22800702482146318
2.783729447222959
0.7063741658785956
-3.810759803399927
-0.6694186216686433
11.41010981633011
-1.3408965838153812
8.911317441399593
0.2966056464717326
5.299701892787808
-1.064211160706614
1.8619671895515744
0.5822398790409009
1.3471203664103748
-1.9866245097149662
8.138462530298437
-1.6533966155241857
3.600479853870736
0.6645247654062723
-2.4268422443138045
0.46169360150676164
9.400796197807377
0.7471808463052638
-5.478992278119041
0.3919095429598598
4.382597405416802
0.3195665681083031
0.2842924718569213
-1.6944309891195029
3.4939964729816206
0.029790251339699703
2.488167561469516
0.4234715262080173
-0.36138444395541924
-1.4371025526132368
8.054855338014754
0.5667781637964047
-0.44406603187840554
0.3995996814669791
1.5774151749246368
-0.9716586928661526
2.0890767438834406
0.6171364088365761
-1.0119181864769606
-0.11637582063020258
1.4753170417196646
0.5281625070448488
1.2394194342417526
0.9287100373309372
-8.852872277053983
-0.4131885021398478
1.8832708686001034
-0.534523361813181
10.128409974561272
0.21635421596148774
8.04770384058564
-2.1363829430364087
10.417647060784569
0.48815525012217487
2.596094290615573
0.06111178630203584
2.8313631478811834
-1.727951988046738
9.70262480816231
-0.9656102748010733
3.5201116301119257
0.45722366512852064
10.668949522805912
0.7682127182335883
-2.827432837998479
-0.10884623600603249
9.077927322580736
0.5449911310479116
1.9540583849215651
0.24373235422990192
1.062956641741679
-2.223639126946818
1.532466014556071
0.8600821861953674
-10.183721944608362
-1.3185556101038127
7.972048885376299
-0.18353460593648618
7.006421979540807
0.1807885331693968
3.793596081080018
-0.28814846606475486
6.079382972629826
0.6690150252872771
-2.286569483016035
-0.2359799515576846
3.5711461679862913
-0.7837438455539725
6.0867874439661565
2.3092453061647746
-7.882559006787614
-0.008929958570423224
19.942999638189843
0.08174081884902717
14.081506304502351
-0.5054841094302973
8.877816885885618
0.2621890004725551
1.5081844739409624
0.5677367700599047
-0.19576308556519847
-1.1086508272178315
13.963850912934026
0.11719733947258382
8.891535575144575
0.08045730316392152
7.1831619925627415
-3.4205393984552024
4.53391770806912
0.03386492799306451
1.3908597984209052
0.3003536242232645
9.514469909274657
-0.8362814288788596
6.592925601876507
0.8465571632500237
-1.433888514274585
0.5104887133942979
-0.5289483280115579
0.5180326380139229
0.0737560224530679
-1.6875017597393223
9.586349764003616
-1.5325345015823082
8.258931601541864
-3.293092746938812
4.2372884916858
-0.41012882039464404
6.000799724460256
0.527586441231561
-0.8010320515389227
-1.1261296076473408
6.105757985757977
0.4638546254441285
2.612803999885157
0.1867372909256635
6.016030299925618
-6.266693182129073
7.82825638002726
-0.32911448227778495
2.783283924794049
0.6397349868963114
-0.6855381764134598
-1.2183249057945131
9.094673434826497
-0.6884062328753151
16.905745811194617
-2.7046255966476385
5.504116768359973
0.8560640974654641
-2.7062026778804835
0.21131947640070514
1.519787770816908
0.7711367111888299
-6.02913761039334
-1.4739440247534539
7.14849916806525
1.010768088464709
-4.2609269268874925
0.23339470069202495
0.08679738335326548
1.0319557740595202
-5.131450228010517
-6.22310349124451
10.669239383041154
-0.09145709351290199
1.420003283515929
-0.8082661178997563
6.091741038544652
0.22157957555568375
4.11766802799273
-2.8920532207454848
12.388252304452731
-1.1304553885098445
6.541545349559522
0.9106920551818218
-4.4945912785194135
-6.9890924074765115
7.147716248843425
0.3532812997754018
5.824701161576487
-0.7367308644485343
2.993414094800834
-1.7231682903481755
6.6661042622762
-3.066957910898002
2.8059323362197492
-1.0801919484578832
5.905289094818124
-7.288552678812354
3.9981714432969486
-0.8944143250994667
6.68474343195902
-0.27450922472281825
4.603876819740373
-7.062050030721384
5.50954052151872
0.31062418555207727
2.2491919946065053
1.0477359943969509
-3.313503083166829
0.11090325711175986
0.11239870171243538
-1.4061051170198864
6.453414818658729
-0.05063272738295732
0.720112434082959
-7.457648099282469
9.532505768402132
0.22676847212384788
5.6770418379984235
-2.064645505145355
10.842423073221626
0.7160431456994649
-3.9688889938325813
-17.998397353289615
4.658857287250126
1.7339454439439568
-7.561708929324686
1.1897656615132797
-3.9387224914891115
-2.161380995348234
11.683344235875316
-0.7624064624527618
10.730678165829312
1.6351655693143479
-3.101690800196965
-3.467189045087594
10.223438369919013
-0.3375298894906704
2.1589476491818376
-2.599036194051113
14.234882436963568
-1.1896288917151927
4.593625311895153
-0.7495218709877567
16.24930913970089
-5.37612051748118
6.544580412083932
-1.308748589129256
5.007659726740157
0.8050316555359696
-3.5563365905286144
0.5774986503932815
-1.0771054417349573
-7.310866451619555
6.991327703424592
0.2208633841956269
5.471093647777646
-1.8954931678641418
7.045014416568561
-5.467075664952802
6.6714301589780725
-1.033343640229452
12.43860878947187
0.08930013052463659
2.248413607004549
-3.808639410535377
3.2933991486087897
0.45726349907435937
3.3560489528479835
-5.338701844442926
2.9447313208281756
0.17490714948038288
1.850589415245402
1.403431939978835
-5.362019303815697
-9.807786767134667
13.704234533279724
0.7282733122705469
-2.286025244352737
2.382089864748203
-5.133876413750962
0.29715086095964915
1.3795851235797671
0.5584268309952467
-0.6579154892323357
-3.476460665449185
14.747788163755056
-1.3903528556481228
5.649908796796162
-2.30595243451139
13.948731625254394
-2.6445498131575853
10.33981617623301
14.188465167422123
22.400394061971593
19.77336172378942
