GIS
5
0.0
2
F
T
3
77 0
78 0 1
2 1
157
heads=shore:they
heads=professional:they
heads=democrat:they
heads=family:they
dist=37
heads=state:they
dist=20
dist=28
dist=38
heads=Americans:they
heads=witness:they
heads=community:they
heads=everyone:they
dist=30
heads=you:he
heads=I:he
heads=mummy:he
heads=daddy:he
heads=staff:he
heads=mine:he
heads=corporation:they
heads=I:it
heads=we:it
heads=jumper:they
dist=33
heads=missile:they
heads=mil:it
heads=border:it
heads=nation:it
heads=LOCATION:it
heads=grenade:they
heads=mortar:they
heads=road:it
dist=39
heads=you:it
heads=us:it
heads=ammunition:it
heads=line:they
dist=31
heads=vehicle:they
heads=he:she
heads=otherName:it
heads=gun:they
heads=viewer:they
heads=hospital:they
heads=casualty:they
heads=shell:they
heads=guys:they
heads=round:they
heads=platoon:they
heads=maker:they
heads=building:they
heads=fighter:they
heads=marine:they
heads=folk:they
heads=people:he
heads=family:he
heads=cell:they
heads=government:it
heads=otherName:he
lastCat=name
heads=city:they
heads=asset:they
heads=q:it
heads=me:he
heads=me:it
heads=bomb:they
heads=crowd:they
heads=manufacturer:they
heads=child:she
heads=dad:she
heads=kid:they
heads=you:she
heads=millions:they
heads=coreys:they
heads=dancer:they
heads=city:it
dist=40
lastCat=np
prior=1
prior=2
heads=PERSON:he
heads=GPE:they
heads=ORGANIZATION:they
subject
heads=people:they
prior=3
heads=they:they
dist=16
dist=2
dist=19
dist=21
dist=18
dist=11
dist=9
dist=4
heads=we:they
heads=doctor:they
heads=other:they
dist=15
dist=29
dist=5
dist=10
dist=0
dist=22
heads=he:he
prior=4
dist=8
dist=25
dist=3
dist=1
heads=him:he
dist=27
dist=14
heads=PERSON:she
dist=36
heads=weapon:they
dist=13
heads=them:they
dist=7
heads=GPE:it
heads=helicopter:they
dist=17
heads=ORGANIZATION:it
dist=23
heads=it:it
dist=12
dist=35
dist=24
dist=6
prior=5
dist=34
dist=32
dist=26
heads=troop:they
heads=base:it
heads=FACILITY:it
heads=force:they
prior=8
prior=6
prior=7
heads=soldier:they
prior=10
heads=site:they
heads=otherName:they
prior=9
lastCat=title
heads=Senators:they
reflexdist=40
heads=man:he
heads=country:they
heads=VEH:it
heads=child:they
heads=ones:they
heads=PERSON:they
heads=she:she
heads=her:she
1.2437301376195657
5.610937727744915
1.243730137619566
2.680428928878275
9.373060874383487
4.631926534281401
7.119227409183544
6.2620620336487125
7.590995849369309
3.7341395887627646
1.2437301376195657
2.0107459078687433
3.699087051099417
6.96340185453346
7.989621964290441
7.122882431976343
2.1412119680297343
1.5437851750581195
1.2437301376195593
7.723676212367381
6.552895962748701
9.088019437624547
7.270906746588988
1.774840133678493
7.25393447484924
1.4504339739487453
6.433846900727255
3.0992248546386616
1.2437301376195657
5.0782618045355505
5.114965951231028
5.620407421636783
2.7710074174468717
5.594451376173042
5.44561885787231
1.4960905004655263
1.2437301376195657
1.2437301376195657
7.10446674525973
2.594741275949282
8.276599179380499
4.064434531412519
3.1654002885782226
1.2437301376195657
2.336283369145123
4.1648228785422745
1.8903967104937258
8.405972342491832
2.4538859561874427
1.8650032129788463
1.4850064437468382
3.9472292796826993
1.2437301376195657
4.3196592703940135
2.307096703670669
4.511699181082161
2.5043116985138063
1.2437301376195657
5.064988489080734
3.3018887167035933
2.217218917759266
12.238951318164641
9.349420527640746
5.492856851707039
8.014159989916639
4.0137104757433475
8.848314801948447
2.889204057178558
6.952679792369159
4.800904508685563
1.2437301376195506
3.33137417853391
9.107550812695603
1.6501374028706142
6.259582883598451
6.7818489960200745
11.911887649713437
0.8991485609410743
-15.9079038376394
0.813543990095714
-3.264382978186789
1.042308212101112
-7.441089560988996
1.036635372290891
-4.23591495174721
-0.5321625703105513
4.217421743547311
0.8203961188077802
-13.230565617556286
0.8095984713953523
-6.68330788497664
-0.4315467601215994
1.4021134357377592
0.8103655433911827
-4.36865811851074
1.126550585675684
-2.9569380672057934
-0.6311355546529844
3.114945811246399
-0.3321384140621313
2.0274273592058023
-6.291798336205574
6.0184927116160285
1.1939331460547278
-9.41795012387151
0.9722133956111225
-7.0484870338246575
0.2876958489924659
0.35246073646976694
0.5477592668297584
-1.0357832122016677
0.5239609361189315
-1.1289471095904933
-2.174913061514426
4.4080298325044165
0.8046099789715324
-2.4900105321314827
-0.18028009573305281
5.335185617091965
-1.2133485654029381
9.220114708322747
0.7274044823046522
-2.446333087528247
0.7416171087600887
-2.442348328723923
-0.9907385658425678
3.397594355283839
-0.8449361525224681
2.8650306049854963
-8.76175297405123
4.679522109139212
0.8643575696937789
-4.978576783288716
-10.647408444455463
4.528133639390443
1.1378087229061298
-2.430461234539654
-0.03361617071666867
1.2723103678059982
0.3972517467691179
0.5525137226219683
-1.984267552724749
3.745784698666565
-5.892209267232785
5.070128795921304
-5.301565905891048
5.303634499989759
0.8398421478392877
-4.056615446971654
-0.19516806271475096
1.5735279643076632
-0.613505425954104
3.1560170955257876
0.9609965776129856
-4.61326035147431
0.6617640404102172
-2.1681251700012396
0.06408423721738865
1.1412508616975852
-0.3386887403969183
2.723655349388884
-0.01565112205262409
0.8215471714122959
0.9325872609141452
-9.181077614716454
0.07328482719846763
4.941728866272768
0.8379280897489281
-5.039440942237717
0.5475071428987568
0.3955949131867167
0.8171335471610974
-3.697438230540558
-3.9977605636475744
4.786895541488008
0.1883200391056179
0.9220483557530814
0.8700001364273175
-4.9616075309295375
0.14538071707174316
1.4627065795408347
-0.9538941315145539
2.9274888273877187
-0.9130691402050086
1.378392193761833
0.7614382421171246
-2.6280304490630955
0.7239453636371511
-2.3982812788043066
0.6577300070583898
-1.663361894864011
-2.4833143744705986
12.402970364303856
-0.589812675252928
5.2035681892590295
-4.382991142701801
9.25785740909992
0.08708787142161167
8.819586939024191
0.021228730476641422
0.2667588896243609
-1.4456688491246483
1.8993849739537119
2.0452111839431306
-3.3787616204996658
-0.2219471660752066
4.766364173351468
-0.006430159226769927
0.42160671792965365
-2.1392074173828965
12.673469573408745
-0.6350496342697367
10.679868088382909
-8.373801106068647
4.963005428138041
0.25283987725728485
0.41886732214420586
-2.0926483760941883
8.559874728680168
1.1938840796432526
-7.863864300293133
-4.90134131213092
3.8654937565082435
-1.3740899636814052
5.338654659896851
-3.9686402797703098
5.157438703132199
-1.5046633761302513
6.177260507120811
-2.710783736850636
10.793287438461828
-1.3710111141923644
5.249985615431172
19.703638266728028
19.853857752151114
